digraph Tree {
node [shape=box] ;
0 [label="NMHC_measured <= 1079.0\nmse = 50.662\nsamples = 2141\nvalue = 9.258"] ;
1 [label="NMHC_measured <= 832.5\nmse = 11.288\nsamples = 1631\nvalue = 6.044"] ;
0 -> 1 [labeldistance=2.5, labelangle=45, headlabel="True"] ;
2 [label="NMHC_measured <= 685.5\nmse = 2.78\nsamples = 921\nvalue = 3.488"] ;
1 -> 2 ;
3 [label="NMHC_measured <= 588.0\nmse = 0.832\nsamples = 479\nvalue = 2.117"] ;
2 -> 3 ;
4 [label="NMHC_measured <= 514.5\nmse = 0.281\nsamples = 204\nvalue = 1.249"] ;
3 -> 4 ;
5 [label="NMHC_measured <= 460.5\nmse = 0.067\nsamples = 82\nvalue = 0.697"] ;
4 -> 5 ;
6 [label="NMHC_measured <= 436.0\nmse = 0.025\nsamples = 32\nvalue = 0.451"] ;
5 -> 6 ;
7 [label="NMHC_measured <= 405.0\nmse = 0.01\nsamples = 15\nvalue = 0.304"] ;
6 -> 7 ;
8 [label="NMHC_measured <= 385.0\nmse = 0.002\nsamples = 5\nvalue = 0.162"] ;
7 -> 8 ;
9 [label="mse = -0.0\nsamples = 1\nvalue = 0.1"] ;
8 -> 9 ;
10 [label="mse = 0.0\nsamples = 4\nvalue = 0.2"] ;
8 -> 10 ;
11 [label="NMHC_measured <= 420.5\nmse = 0.002\nsamples = 10\nvalue = 0.36"] ;
7 -> 11 ;
12 [label="mse = 0.0\nsamples = 3\nvalue = 0.3"] ;
11 -> 12 ;
13 [label="mse = 0.0\nsamples = 7\nvalue = 0.4"] ;
11 -> 13 ;
14 [label="NMHC_measured <= 448.0\nmse = 0.001\nsamples = 17\nvalue = 0.584"] ;
6 -> 14 ;
15 [label="mse = 0.0\nsamples = 5\nvalue = 0.5"] ;
14 -> 15 ;
16 [label="mse = 0.0\nsamples = 12\nvalue = 0.6"] ;
14 -> 16 ;
17 [label="NMHC_measured <= 482.0\nmse = 0.018\nsamples = 50\nvalue = 0.883"] ;
5 -> 17 ;
18 [label="NMHC_measured <= 473.5\nmse = 0.002\nsamples = 16\nvalue = 0.731"] ;
17 -> 18 ;
19 [label="mse = 0.0\nsamples = 10\nvalue = 0.7"] ;
18 -> 19 ;
20 [label="mse = 0.0\nsamples = 6\nvalue = 0.8"] ;
18 -> 20 ;
21 [label="NMHC_measured <= 494.5\nmse = 0.006\nsamples = 34\nvalue = 0.973"] ;
17 -> 21 ;
22 [label="mse = 0.0\nsamples = 14\nvalue = 0.9"] ;
21 -> 22 ;
23 [label="NMHC_measured <= 504.5\nmse = 0.002\nsamples = 20\nvalue = 1.033"] ;
21 -> 23 ;
24 [label="mse = 0.0\nsamples = 12\nvalue = 1.0"] ;
23 -> 24 ;
25 [label="mse = -0.0\nsamples = 8\nvalue = 1.1"] ;
23 -> 25 ;
26 [label="NMHC_measured <= 556.0\nmse = 0.074\nsamples = 122\nvalue = 1.629"] ;
4 -> 26 ;
27 [label="NMHC_measured <= 532.5\nmse = 0.018\nsamples = 63\nvalue = 1.393"] ;
26 -> 27 ;
28 [label="NMHC_measured <= 523.0\nmse = 0.003\nsamples = 25\nvalue = 1.259"] ;
27 -> 28 ;
29 [label="mse = 0.0\nsamples = 10\nvalue = 1.2"] ;
28 -> 29 ;
30 [label="NOx_measured <= 1028.0\nmse = 0.0\nsamples = 15\nvalue = 1.304"] ;
28 -> 30 ;
31 [label="mse = 0.0\nsamples = 1\nvalue = 1.4"] ;
30 -> 31 ;
32 [label="mse = -0.0\nsamples = 14\nvalue = 1.3"] ;
30 -> 32 ;
33 [label="NMHC_measured <= 540.5\nmse = 0.006\nsamples = 38\nvalue = 1.493"] ;
27 -> 33 ;
34 [label="mse = 0.0\nsamples = 14\nvalue = 1.4"] ;
33 -> 34 ;
35 [label="NMHC_measured <= 550.0\nmse = 0.002\nsamples = 24\nvalue = 1.541"] ;
33 -> 35 ;
36 [label="mse = -0.0\nsamples = 14\nvalue = 1.5"] ;
35 -> 36 ;
37 [label="mse = -0.0\nsamples = 10\nvalue = 1.6"] ;
35 -> 37 ;
38 [label="NMHC_measured <= 572.5\nmse = 0.01\nsamples = 59\nvalue = 1.882"] ;
26 -> 38 ;
39 [label="NMHC_measured <= 564.0\nmse = 0.002\nsamples = 24\nvalue = 1.77"] ;
38 -> 39 ;
40 [label="mse = 0.0\nsamples = 6\nvalue = 1.7"] ;
39 -> 40 ;
41 [label="NO2_measured <= 1143.5\nmse = 0.0\nsamples = 18\nvalue = 1.796"] ;
39 -> 41 ;
42 [label="mse = 0.0\nsamples = 17\nvalue = 1.8"] ;
41 -> 42 ;
43 [label="mse = -0.0\nsamples = 1\nvalue = 1.7"] ;
41 -> 43 ;
44 [label="NMHC_measured <= 580.5\nmse = 0.002\nsamples = 35\nvalue = 1.953"] ;
38 -> 44 ;
45 [label="mse = 0.0\nsamples = 14\nvalue = 1.9"] ;
44 -> 45 ;
46 [label="mse = -0.0\nsamples = 21\nvalue = 2.0"] ;
44 -> 46 ;
47 [label="NMHC_measured <= 642.5\nmse = 0.171\nsamples = 275\nvalue = 2.822"] ;
3 -> 47 ;
48 [label="NMHC_measured <= 615.5\nmse = 0.053\nsamples = 143\nvalue = 2.478"] ;
47 -> 48 ;
49 [label="NMHC_measured <= 603.0\nmse = 0.014\nsamples = 62\nvalue = 2.251"] ;
48 -> 49 ;
50 [label="NMHC_measured <= 595.5\nmse = 0.003\nsamples = 30\nvalue = 2.149"] ;
49 -> 50 ;
51 [label="mse = -0.0\nsamples = 15\nvalue = 2.1"] ;
50 -> 51 ;
52 [label="NO2_measured <= 1152.5\nmse = 0.0\nsamples = 15\nvalue = 2.205"] ;
50 -> 52 ;
53 [label="mse = 0.0\nsamples = 14\nvalue = 2.2"] ;
52 -> 53 ;
54 [label="mse = 0.0\nsamples = 1\nvalue = 2.3"] ;
52 -> 54 ;
55 [label="NMHC_measured <= 609.5\nmse = 0.002\nsamples = 32\nvalue = 2.359"] ;
49 -> 55 ;
56 [label="O3_measured <= 911.0\nmse = 0.001\nsamples = 15\nvalue = 2.314"] ;
55 -> 56 ;
57 [label="mse = 0.0\nsamples = 14\nvalue = 2.3"] ;
56 -> 57 ;
58 [label="mse = 0.0\nsamples = 1\nvalue = 2.4"] ;
56 -> 58 ;
59 [label="mse = -0.0\nsamples = 17\nvalue = 2.4"] ;
55 -> 59 ;
60 [label="NMHC_measured <= 629.5\nmse = 0.014\nsamples = 81\nvalue = 2.65"] ;
48 -> 60 ;
61 [label="NMHC_measured <= 623.5\nmse = 0.002\nsamples = 42\nvalue = 2.541"] ;
60 -> 61 ;
62 [label="temp <= 2.4\nmse = 0.0\nsamples = 26\nvalue = 2.503"] ;
61 -> 62 ;
63 [label="RH <= 46.35\nmse = 0.003\nsamples = 2\nvalue = 2.55"] ;
62 -> 63 ;
64 [label="mse = 0.0\nsamples = 1\nvalue = 2.5"] ;
63 -> 64 ;
65 [label="mse = 0.0\nsamples = 1\nvalue = 2.6"] ;
63 -> 65 ;
66 [label="mse = 0.0\nsamples = 24\nvalue = 2.5"] ;
62 -> 66 ;
67 [label="mse = 0.0\nsamples = 16\nvalue = 2.6"] ;
61 -> 67 ;
68 [label="NMHC_measured <= 636.5\nmse = 0.003\nsamples = 39\nvalue = 2.753"] ;
60 -> 68 ;
69 [label="NMHC_measured <= 635.5\nmse = 0.001\nsamples = 22\nvalue = 2.703"] ;
68 -> 69 ;
70 [label="CO_measured <= 813.0\nmse = 0.0\nsamples = 18\nvalue = 2.696"] ;
69 -> 70 ;
71 [label="NOx_measured <= 1338.5\nmse = 0.002\nsamples = 2\nvalue = 2.65"] ;
70 -> 71 ;
72 [label="mse = 0.0\nsamples = 1\nvalue = 2.6"] ;
71 -> 72 ;
73 [label="mse = -0.0\nsamples = 1\nvalue = 2.7"] ;
71 -> 73 ;
74 [label="mse = 0.0\nsamples = 16\nvalue = 2.7"] ;
70 -> 74 ;
75 [label="RH <= 60.9\nmse = 0.002\nsamples = 4\nvalue = 2.74"] ;
69 -> 75 ;
76 [label="CO_measured <= 817.5\nmse = 0.002\nsamples = 3\nvalue = 2.725"] ;
75 -> 76 ;
77 [label="mse = 0.0\nsamples = 1\nvalue = 2.8"] ;
76 -> 77 ;
78 [label="mse = -0.0\nsamples = 2\nvalue = 2.7"] ;
76 -> 78 ;
79 [label="mse = -0.0\nsamples = 1\nvalue = 2.8"] ;
75 -> 79 ;
80 [label="mse = 0.0\nsamples = 17\nvalue = 2.8"] ;
68 -> 80 ;
81 [label="NMHC_measured <= 661.5\nmse = 0.04\nsamples = 132\nvalue = 3.183"] ;
47 -> 81 ;
82 [label="NMHC_measured <= 655.5\nmse = 0.007\nsamples = 64\nvalue = 3.003"] ;
81 -> 82 ;
83 [label="NMHC_measured <= 649.5\nmse = 0.003\nsamples = 40\nvalue = 2.953"] ;
82 -> 83 ;
84 [label="NMHC_measured <= 648.5\nmse = 0.001\nsamples = 24\nvalue = 2.914"] ;
83 -> 84 ;
85 [label="mse = -0.0\nsamples = 17\nvalue = 2.9"] ;
84 -> 85 ;
86 [label="AH <= 0.38\nmse = 0.002\nsamples = 7\nvalue = 2.95"] ;
84 -> 86 ;
87 [label="mse = 0.0\nsamples = 2\nvalue = 2.9"] ;
86 -> 87 ;
88 [label="AH <= 0.49\nmse = 0.002\nsamples = 5\nvalue = 2.971"] ;
86 -> 88 ;
89 [label="mse = 0.0\nsamples = 2\nvalue = 3.0"] ;
88 -> 89 ;
90 [label="NO2_measured <= 1151.0\nmse = 0.002\nsamples = 3\nvalue = 2.933"] ;
88 -> 90 ;
91 [label="mse = -0.0\nsamples = 2\nvalue = 2.9"] ;
90 -> 91 ;
92 [label="mse = 0.0\nsamples = 1\nvalue = 3.0"] ;
90 -> 92 ;
93 [label="RH <= 63.8\nmse = 0.0\nsamples = 16\nvalue = 3.003"] ;
83 -> 93 ;
94 [label="mse = 0.0\nsamples = 11\nvalue = 3.0"] ;
93 -> 94 ;
95 [label="NOx_measured <= 998.5\nmse = 0.002\nsamples = 5\nvalue = 3.02"] ;
93 -> 95 ;
96 [label="mse = 0.0\nsamples = 4\nvalue = 3.0"] ;
95 -> 96 ;
97 [label="mse = 0.0\nsamples = 1\nvalue = 3.1"] ;
95 -> 97 ;
98 [label="mse = 0.0\nsamples = 24\nvalue = 3.1"] ;
82 -> 98 ;
99 [label="NMHC_measured <= 673.5\nmse = 0.01\nsamples = 68\nvalue = 3.36"] ;
81 -> 99 ;
100 [label="NMHC_measured <= 667.5\nmse = 0.002\nsamples = 31\nvalue = 3.275"] ;
99 -> 100 ;
101 [label="mse = 0.0\nsamples = 8\nvalue = 3.2"] ;
100 -> 101 ;
102 [label="mse = -0.0\nsamples = 23\nvalue = 3.3"] ;
100 -> 102 ;
103 [label="NMHC_measured <= 679.5\nmse = 0.002\nsamples = 37\nvalue = 3.448"] ;
99 -> 103 ;
104 [label="mse = 0.0\nsamples = 19\nvalue = 3.4"] ;
103 -> 104 ;
105 [label="mse = 0.0\nsamples = 18\nvalue = 3.5"] ;
103 -> 105 ;
106 [label="NMHC_measured <= 760.5\nmse = 0.714\nsamples = 442\nvalue = 4.951"] ;
2 -> 106 ;
107 [label="NMHC_measured <= 719.5\nmse = 0.153\nsamples = 220\nvalue = 4.197"] ;
106 -> 107 ;
108 [label="NMHC_measured <= 702.5\nmse = 0.031\nsamples = 106\nvalue = 3.833"] ;
107 -> 108 ;
109 [label="NMHC_measured <= 696.5\nmse = 0.008\nsamples = 58\nvalue = 3.702"] ;
108 -> 109 ;
110 [label="NMHC_measured <= 691.5\nmse = 0.002\nsamples = 34\nvalue = 3.636"] ;
109 -> 110 ;
111 [label="mse = 0.0\nsamples = 22\nvalue = 3.6"] ;
110 -> 111 ;
112 [label="mse = 0.0\nsamples = 12\nvalue = 3.7"] ;
110 -> 112 ;
113 [label="mse = -0.0\nsamples = 24\nvalue = 3.8"] ;
109 -> 113 ;
114 [label="NMHC_measured <= 713.5\nmse = 0.008\nsamples = 48\nvalue = 4.01"] ;
108 -> 114 ;
115 [label="NMHC_measured <= 707.5\nmse = 0.003\nsamples = 30\nvalue = 3.95"] ;
114 -> 115 ;
116 [label="mse = 0.0\nsamples = 14\nvalue = 3.9"] ;
115 -> 116 ;
117 [label="CO_measured <= 883.0\nmse = 0.0\nsamples = 16\nvalue = 3.995"] ;
115 -> 117 ;
118 [label="RH <= 45.05\nmse = 0.002\nsamples = 2\nvalue = 3.95"] ;
117 -> 118 ;
119 [label="mse = 0.0\nsamples = 1\nvalue = 4.0"] ;
118 -> 119 ;
120 [label="mse = -0.0\nsamples = 1\nvalue = 3.9"] ;
118 -> 120 ;
121 [label="mse = 0.0\nsamples = 14\nvalue = 4.0"] ;
117 -> 121 ;
122 [label="NMHC_measured <= 718.5\nmse = 0.001\nsamples = 18\nvalue = 4.108"] ;
114 -> 122 ;
123 [label="mse = 0.0\nsamples = 16\nvalue = 4.1"] ;
122 -> 123 ;
124 [label="AH <= 0.808\nmse = 0.002\nsamples = 2\nvalue = 4.167"] ;
122 -> 124 ;
125 [label="mse = 0.0\nsamples = 1\nvalue = 4.1"] ;
124 -> 125 ;
126 [label="mse = 0.0\nsamples = 1\nvalue = 4.2"] ;
124 -> 126 ;
127 [label="NMHC_measured <= 740.5\nmse = 0.046\nsamples = 114\nvalue = 4.511"] ;
107 -> 127 ;
128 [label="NMHC_measured <= 729.5\nmse = 0.011\nsamples = 67\nvalue = 4.371"] ;
127 -> 128 ;
129 [label="NMHC_measured <= 724.5\nmse = 0.002\nsamples = 31\nvalue = 4.26"] ;
128 -> 129 ;
130 [label="mse = -0.0\nsamples = 13\nvalue = 4.2"] ;
129 -> 130 ;
131 [label="mse = 0.0\nsamples = 18\nvalue = 4.3"] ;
129 -> 131 ;
132 [label="NMHC_measured <= 734.5\nmse = 0.003\nsamples = 36\nvalue = 4.441"] ;
128 -> 132 ;
133 [label="NOx_measured <= 963.5\nmse = 0.001\nsamples = 17\nvalue = 4.392"] ;
132 -> 133 ;
134 [label="temp <= 14.95\nmse = 0.0\nsamples = 16\nvalue = 4.397"] ;
133 -> 134 ;
135 [label="mse = 0.0\nsamples = 14\nvalue = 4.4"] ;
134 -> 135 ;
136 [label="AH <= 0.74\nmse = 0.002\nsamples = 2\nvalue = 4.367"] ;
134 -> 136 ;
137 [label="mse = 0.0\nsamples = 1\nvalue = 4.4"] ;
136 -> 137 ;
138 [label="mse = -0.0\nsamples = 1\nvalue = 4.3"] ;
136 -> 138 ;
139 [label="mse = 0.0\nsamples = 1\nvalue = 4.3"] ;
133 -> 139 ;
140 [label="NMHC_measured <= 735.5\nmse = 0.0\nsamples = 19\nvalue = 4.497"] ;
132 -> 140 ;
141 [label="RH <= 48.8\nmse = 0.002\nsamples = 2\nvalue = 4.45"] ;
140 -> 141 ;
142 [label="mse = 0.0\nsamples = 1\nvalue = 4.5"] ;
141 -> 142 ;
143 [label="mse = -0.0\nsamples = 1\nvalue = 4.4"] ;
141 -> 143 ;
144 [label="mse = 0.0\nsamples = 17\nvalue = 4.5"] ;
140 -> 144 ;
145 [label="NMHC_measured <= 750.5\nmse = 0.015\nsamples = 47\nvalue = 4.748"] ;
127 -> 145 ;
146 [label="NMHC_measured <= 745.5\nmse = 0.002\nsamples = 22\nvalue = 4.637"] ;
145 -> 146 ;
147 [label="mse = -0.0\nsamples = 13\nvalue = 4.6"] ;
146 -> 147 ;
148 [label="AH <= 1.04\nmse = 0.001\nsamples = 9\nvalue = 4.693"] ;
146 -> 148 ;
149 [label="mse = 0.0\nsamples = 8\nvalue = 4.7"] ;
148 -> 149 ;
150 [label="mse = -0.0\nsamples = 1\nvalue = 4.6"] ;
148 -> 150 ;
151 [label="NMHC_measured <= 755.5\nmse = 0.002\nsamples = 25\nvalue = 4.862"] ;
145 -> 151 ;
152 [label="mse = -0.0\nsamples = 8\nvalue = 4.8"] ;
151 -> 152 ;
153 [label="O3_measured <= 1178.0\nmse = 0.0\nsamples = 17\nvalue = 4.895"] ;
151 -> 153 ;
154 [label="mse = -0.0\nsamples = 16\nvalue = 4.9"] ;
153 -> 154 ;
155 [label="mse = 0.0\nsamples = 1\nvalue = 4.8"] ;
153 -> 155 ;
156 [label="NMHC_measured <= 795.5\nmse = 0.178\nsamples = 222\nvalue = 5.678"] ;
106 -> 156 ;
157 [label="NMHC_measured <= 781.5\nmse = 0.037\nsamples = 113\nvalue = 5.297"] ;
156 -> 157 ;
158 [label="NMHC_measured <= 770.5\nmse = 0.014\nsamples = 68\nvalue = 5.169"] ;
157 -> 158 ;
159 [label="NMHC_measured <= 766.5\nmse = 0.004\nsamples = 25\nvalue = 5.03"] ;
158 -> 159 ;
160 [label="RH <= 29.5\nmse = 0.002\nsamples = 15\nvalue = 4.996"] ;
159 -> 160 ;
161 [label="temp <= 13.7\nmse = 0.002\nsamples = 3\nvalue = 4.925"] ;
160 -> 161 ;
162 [label="mse = -0.0\nsamples = 2\nvalue = 4.9"] ;
161 -> 162 ;
163 [label="mse = 0.0\nsamples = 1\nvalue = 5.0"] ;
161 -> 163 ;
164 [label="NO2_measured <= 1230.0\nmse = 0.001\nsamples = 12\nvalue = 5.01"] ;
160 -> 164 ;
165 [label="mse = 0.0\nsamples = 11\nvalue = 5.0"] ;
164 -> 165 ;
166 [label="mse = -0.0\nsamples = 1\nvalue = 5.1"] ;
164 -> 166 ;
167 [label="mse = 0.0\nsamples = 10\nvalue = 5.1"] ;
159 -> 167 ;
168 [label="NMHC_measured <= 775.5\nmse = 0.004\nsamples = 43\nvalue = 5.244"] ;
158 -> 168 ;
169 [label="RH <= 63.35\nmse = 0.001\nsamples = 21\nvalue = 5.188"] ;
168 -> 169 ;
170 [label="mse = -0.0\nsamples = 15\nvalue = 5.2"] ;
169 -> 170 ;
171 [label="temp <= 9.6\nmse = 0.002\nsamples = 6\nvalue = 5.16"] ;
169 -> 171 ;
172 [label="mse = 0.0\nsamples = 2\nvalue = 5.1"] ;
171 -> 172 ;
173 [label="mse = 0.0\nsamples = 4\nvalue = 5.2"] ;
171 -> 173 ;
174 [label="RH <= 71.05\nmse = 0.0\nsamples = 22\nvalue = 5.297"] ;
168 -> 174 ;
175 [label="mse = -0.0\nsamples = 21\nvalue = 5.3"] ;
174 -> 175 ;
176 [label="mse = -0.0\nsamples = 1\nvalue = 5.2"] ;
174 -> 176 ;
177 [label="NMHC_measured <= 785.5\nmse = 0.006\nsamples = 45\nvalue = 5.497"] ;
157 -> 177 ;
178 [label="mse = 0.0\nsamples = 15\nvalue = 5.4"] ;
177 -> 178 ;
179 [label="NMHC_measured <= 790.5\nmse = 0.002\nsamples = 30\nvalue = 5.544"] ;
177 -> 179 ;
180 [label="mse = -0.0\nsamples = 17\nvalue = 5.5"] ;
179 -> 180 ;
181 [label="mse = 0.0\nsamples = 13\nvalue = 5.6"] ;
179 -> 181 ;
182 [label="NMHC_measured <= 813.5\nmse = 0.05\nsamples = 109\nvalue = 6.03"] ;
156 -> 182 ;
183 [label="NMHC_measured <= 805.5\nmse = 0.011\nsamples = 56\nvalue = 5.848"] ;
182 -> 183 ;
184 [label="NMHC_measured <= 800.5\nmse = 0.003\nsamples = 31\nvalue = 5.757"] ;
183 -> 184 ;
185 [label="NOx_measured <= 688.5\nmse = 0.001\nsamples = 15\nvalue = 5.708"] ;
184 -> 185 ;
186 [label="temp <= 14.35\nmse = 0.002\nsamples = 2\nvalue = 5.75"] ;
185 -> 186 ;
187 [label="mse = 0.0\nsamples = 1\nvalue = 5.8"] ;
186 -> 187 ;
188 [label="mse = -0.0\nsamples = 1\nvalue = 5.7"] ;
186 -> 188 ;
189 [label="mse = 0.0\nsamples = 13\nvalue = 5.7"] ;
185 -> 189 ;
190 [label="RH <= 70.9\nmse = 0.001\nsamples = 16\nvalue = 5.808"] ;
184 -> 190 ;
191 [label="CO_measured <= 1123.0\nmse = 0.0\nsamples = 15\nvalue = 5.804"] ;
190 -> 191 ;
192 [label="mse = 0.0\nsamples = 13\nvalue = 5.8"] ;
191 -> 192 ;
193 [label="RH <= 61.45\nmse = 0.002\nsamples = 2\nvalue = 5.85"] ;
191 -> 193 ;
194 [label="mse = 0.0\nsamples = 1\nvalue = 5.9"] ;
193 -> 194 ;
195 [label="mse = 0.0\nsamples = 1\nvalue = 5.8"] ;
193 -> 195 ;
196 [label="mse = -0.0\nsamples = 1\nvalue = 5.9"] ;
190 -> 196 ;
197 [label="NMHC_measured <= 809.5\nmse = 0.002\nsamples = 25\nvalue = 5.943"] ;
183 -> 197 ;
198 [label="mse = -0.0\nsamples = 12\nvalue = 5.9"] ;
197 -> 198 ;
199 [label="mse = -0.0\nsamples = 13\nvalue = 6.0"] ;
197 -> 199 ;
200 [label="NMHC_measured <= 823.5\nmse = 0.012\nsamples = 53\nvalue = 6.242"] ;
182 -> 200 ;
201 [label="NMHC_measured <= 818.5\nmse = 0.002\nsamples = 31\nvalue = 6.161"] ;
200 -> 201 ;
202 [label="mse = 0.0\nsamples = 14\nvalue = 6.1"] ;
201 -> 202 ;
203 [label="mse = 0.0\nsamples = 17\nvalue = 6.2"] ;
201 -> 203 ;
204 [label="NMHC_measured <= 827.0\nmse = 0.002\nsamples = 22\nvalue = 6.36"] ;
200 -> 204 ;
205 [label="mse = 0.0\nsamples = 9\nvalue = 6.3"] ;
204 -> 205 ;
206 [label="mse = -0.0\nsamples = 13\nvalue = 6.4"] ;
204 -> 206 ;
207 [label="NMHC_measured <= 939.077\nmse = 2.667\nsamples = 710\nvalue = 9.392"] ;
1 -> 207 ;
208 [label="NMHC_measured <= 888.5\nmse = 0.51\nsamples = 289\nvalue = 7.705"] ;
207 -> 208 ;
209 [label="NMHC_measured <= 863.5\nmse = 0.143\nsamples = 151\nvalue = 7.118"] ;
208 -> 209 ;
210 [label="NMHC_measured <= 850.5\nmse = 0.042\nsamples = 82\nvalue = 6.815"] ;
209 -> 210 ;
211 [label="NMHC_measured <= 841.5\nmse = 0.013\nsamples = 43\nvalue = 6.658"] ;
210 -> 211 ;
212 [label="NMHC_measured <= 836.5\nmse = 0.002\nsamples = 20\nvalue = 6.55"] ;
211 -> 212 ;
213 [label="mse = 0.0\nsamples = 9\nvalue = 6.5"] ;
212 -> 213 ;
214 [label="temp <= 11.6\nmse = 0.001\nsamples = 11\nvalue = 6.594"] ;
212 -> 214 ;
215 [label="mse = -0.0\nsamples = 7\nvalue = 6.6"] ;
214 -> 215 ;
216 [label="AH <= 0.749\nmse = 0.002\nsamples = 4\nvalue = 6.575"] ;
214 -> 216 ;
217 [label="mse = 0.0\nsamples = 1\nvalue = 6.5"] ;
216 -> 217 ;
218 [label="mse = 0.0\nsamples = 3\nvalue = 6.6"] ;
216 -> 218 ;
219 [label="NMHC_measured <= 845.5\nmse = 0.002\nsamples = 23\nvalue = 6.757"] ;
211 -> 219 ;
220 [label="mse = -0.0\nsamples = 10\nvalue = 6.7"] ;
219 -> 220 ;
221 [label="temp <= 3.0\nmse = 0.001\nsamples = 13\nvalue = 6.791"] ;
219 -> 221 ;
222 [label="mse = 0.0\nsamples = 1\nvalue = 6.7"] ;
221 -> 222 ;
223 [label="mse = 0.0\nsamples = 12\nvalue = 6.8"] ;
221 -> 223 ;
224 [label="NMHC_measured <= 858.0\nmse = 0.007\nsamples = 39\nvalue = 7.018"] ;
210 -> 224 ;
225 [label="NMHC_measured <= 854.5\nmse = 0.002\nsamples = 21\nvalue = 6.944"] ;
224 -> 225 ;
226 [label="mse = -0.0\nsamples = 11\nvalue = 6.9"] ;
225 -> 226 ;
227 [label="NMHC_measured <= 855.5\nmse = 0.001\nsamples = 10\nvalue = 6.986"] ;
225 -> 227 ;
228 [label="O3_measured <= 1050.0\nmse = 0.002\nsamples = 4\nvalue = 6.967"] ;
227 -> 228 ;
229 [label="mse = 0.0\nsamples = 2\nvalue = 6.9"] ;
228 -> 229 ;
230 [label="mse = 0.0\nsamples = 2\nvalue = 7.0"] ;
228 -> 230 ;
231 [label="mse = 0.0\nsamples = 6\nvalue = 7.0"] ;
227 -> 231 ;
232 [label="NMHC_measured <= 859.5\nmse = 0.001\nsamples = 18\nvalue = 7.089"] ;
224 -> 232 ;
233 [label="NO2_measured <= 1182.0\nmse = 0.002\nsamples = 5\nvalue = 7.057"] ;
232 -> 233 ;
234 [label="mse = 0.0\nsamples = 2\nvalue = 7.0"] ;
233 -> 234 ;
235 [label="O3_measured <= 947.5\nmse = 0.002\nsamples = 3\nvalue = 7.08"] ;
233 -> 235 ;
236 [label="mse = 0.0\nsamples = 2\nvalue = 7.1"] ;
235 -> 236 ;
237 [label="mse = 0.0\nsamples = 1\nvalue = 7.0"] ;
235 -> 237 ;
238 [label="mse = 0.0\nsamples = 13\nvalue = 7.1"] ;
232 -> 238 ;
239 [label="NMHC_measured <= 875.5\nmse = 0.031\nsamples = 69\nvalue = 7.465"] ;
209 -> 239 ;
240 [label="NMHC_measured <= 867.5\nmse = 0.006\nsamples = 34\nvalue = 7.281"] ;
239 -> 240 ;
241 [label="mse = 0.0\nsamples = 13\nvalue = 7.2"] ;
240 -> 241 ;
242 [label="NMHC_measured <= 871.5\nmse = 0.002\nsamples = 21\nvalue = 7.336"] ;
240 -> 242 ;
243 [label="mse = -0.0\nsamples = 12\nvalue = 7.3"] ;
242 -> 243 ;
244 [label="temp <= 15.25\nmse = 0.001\nsamples = 9\nvalue = 7.383"] ;
242 -> 244 ;
245 [label="mse = -0.0\nsamples = 8\nvalue = 7.4"] ;
244 -> 245 ;
246 [label="mse = 0.0\nsamples = 1\nvalue = 7.3"] ;
244 -> 246 ;
247 [label="NMHC_measured <= 884.5\nmse = 0.006\nsamples = 35\nvalue = 7.603"] ;
239 -> 247 ;
248 [label="NMHC_measured <= 880.5\nmse = 0.002\nsamples = 23\nvalue = 7.558"] ;
247 -> 248 ;
249 [label="mse = 0.0\nsamples = 10\nvalue = 7.5"] ;
248 -> 249 ;
250 [label="mse = 0.0\nsamples = 13\nvalue = 7.6"] ;
248 -> 250 ;
251 [label="mse = 0.0\nsamples = 12\nvalue = 7.7"] ;
247 -> 251 ;
252 [label="NMHC_measured <= 913.5\nmse = 0.11\nsamples = 138\nvalue = 8.358"] ;
208 -> 252 ;
253 [label="NMHC_measured <= 900.5\nmse = 0.025\nsamples = 66\nvalue = 8.062"] ;
252 -> 253 ;
254 [label="NMHC_measured <= 892.5\nmse = 0.006\nsamples = 26\nvalue = 7.892"] ;
253 -> 254 ;
255 [label="O3_measured <= 1308.5\nmse = 0.001\nsamples = 9\nvalue = 7.791"] ;
254 -> 255 ;
256 [label="mse = 0.0\nsamples = 8\nvalue = 7.8"] ;
255 -> 256 ;
257 [label="mse = 0.0\nsamples = 1\nvalue = 7.7"] ;
255 -> 257 ;
258 [label="NMHC_measured <= 898.0\nmse = 0.002\nsamples = 17\nvalue = 7.931"] ;
254 -> 258 ;
259 [label="mse = 0.0\nsamples = 13\nvalue = 7.9"] ;
258 -> 259 ;
260 [label="mse = 0.0\nsamples = 4\nvalue = 8.0"] ;
258 -> 260 ;
261 [label="NMHC_measured <= 905.5\nmse = 0.007\nsamples = 40\nvalue = 8.175"] ;
253 -> 261 ;
262 [label="NMHC_measured <= 901.5\nmse = 0.0\nsamples = 19\nvalue = 8.096"] ;
261 -> 262 ;
263 [label="temp <= 8.3\nmse = 0.002\nsamples = 3\nvalue = 8.08"] ;
262 -> 263 ;
264 [label="mse = 0.0\nsamples = 1\nvalue = 8.0"] ;
263 -> 264 ;
265 [label="mse = 0.0\nsamples = 2\nvalue = 8.1"] ;
263 -> 265 ;
266 [label="mse = 0.0\nsamples = 16\nvalue = 8.1"] ;
262 -> 266 ;
267 [label="NMHC_measured <= 909.5\nmse = 0.002\nsamples = 21\nvalue = 8.239"] ;
261 -> 267 ;
268 [label="mse = 0.0\nsamples = 12\nvalue = 8.2"] ;
267 -> 268 ;
269 [label="mse = 0.0\nsamples = 9\nvalue = 8.3"] ;
267 -> 269 ;
270 [label="NMHC_measured <= 925.5\nmse = 0.036\nsamples = 72\nvalue = 8.623"] ;
252 -> 270 ;
271 [label="NMHC_measured <= 917.5\nmse = 0.008\nsamples = 38\nvalue = 8.477"] ;
270 -> 271 ;
272 [label="mse = -0.0\nsamples = 18\nvalue = 8.4"] ;
271 -> 272 ;
273 [label="NMHC_measured <= 921.5\nmse = 0.002\nsamples = 20\nvalue = 8.56"] ;
271 -> 273 ;
274 [label="mse = 0.0\nsamples = 8\nvalue = 8.5"] ;
273 -> 274 ;
275 [label="mse = 0.0\nsamples = 12\nvalue = 8.6"] ;
273 -> 275 ;
276 [label="NMHC_measured <= 933.5\nmse = 0.012\nsamples = 34\nvalue = 8.804"] ;
270 -> 276 ;
277 [label="NMHC_measured <= 929.5\nmse = 0.003\nsamples = 22\nvalue = 8.733"] ;
276 -> 277 ;
278 [label="CO_measured <= 1250.5\nmse = 0.0\nsamples = 12\nvalue = 8.695"] ;
277 -> 278 ;
279 [label="mse = -0.0\nsamples = 11\nvalue = 8.7"] ;
278 -> 279 ;
280 [label="mse = 0.0\nsamples = 1\nvalue = 8.6"] ;
278 -> 280 ;
281 [label="mse = -0.0\nsamples = 10\nvalue = 8.8"] ;
277 -> 281 ;
282 [label="NMHC_measured <= 937.0\nmse = 0.002\nsamples = 12\nvalue = 8.941"] ;
276 -> 282 ;
283 [label="mse = -0.0\nsamples = 7\nvalue = 8.9"] ;
282 -> 283 ;
284 [label="mse = 0.0\nsamples = 5\nvalue = 9.0"] ;
282 -> 284 ;
285 [label="NMHC_measured <= 1012.5\nmse = 0.893\nsamples = 421\nvalue = 10.535"] ;
207 -> 285 ;
286 [label="NMHC_measured <= 986.5\nmse = 0.183\nsamples = 299\nvalue = 10.024"] ;
285 -> 286 ;
287 [label="NO2_measured <= 1416.5\nmse = 0.115\nsamples = 244\nvalue = 9.878"] ;
286 -> 287 ;
288 [label="NMHC_measured <= 964.5\nmse = 0.137\nsamples = 101\nvalue = 9.604"] ;
287 -> 288 ;
289 [label="NMHC_measured <= 952.5\nmse = 0.04\nsamples = 54\nvalue = 9.323"] ;
288 -> 289 ;
290 [label="NMHC_measured <= 945.5\nmse = 0.01\nsamples = 28\nvalue = 9.158"] ;
289 -> 290 ;
291 [label="NMHC_measured <= 941.5\nmse = 0.003\nsamples = 14\nvalue = 9.07"] ;
290 -> 291 ;
292 [label="mse = 0.0\nsamples = 5\nvalue = 9.0"] ;
291 -> 292 ;
293 [label="temp <= 5.9\nmse = 0.001\nsamples = 9\nvalue = 9.107"] ;
291 -> 293 ;
294 [label="AH <= 0.546\nmse = 0.003\nsamples = 2\nvalue = 9.15"] ;
293 -> 294 ;
295 [label="mse = 0.0\nsamples = 1\nvalue = 9.2"] ;
294 -> 295 ;
296 [label="mse = 0.0\nsamples = 1\nvalue = 9.1"] ;
294 -> 296 ;
297 [label="mse = -0.0\nsamples = 7\nvalue = 9.1"] ;
293 -> 297 ;
298 [label="NMHC_measured <= 949.5\nmse = 0.002\nsamples = 14\nvalue = 9.24"] ;
290 -> 298 ;
299 [label="mse = 0.0\nsamples = 9\nvalue = 9.2"] ;
298 -> 299 ;
300 [label="mse = -0.0\nsamples = 5\nvalue = 9.3"] ;
298 -> 300 ;
301 [label="NMHC_measured <= 960.5\nmse = 0.007\nsamples = 26\nvalue = 9.512"] ;
289 -> 301 ;
302 [label="NMHC_measured <= 957.0\nmse = 0.003\nsamples = 14\nvalue = 9.45"] ;
301 -> 302 ;
303 [label="mse = 0.0\nsamples = 7\nvalue = 9.4"] ;
302 -> 303 ;
304 [label="mse = 0.0\nsamples = 7\nvalue = 9.5"] ;
302 -> 304 ;
305 [label="RH <= 15.1\nmse = 0.001\nsamples = 12\nvalue = 9.594"] ;
301 -> 305 ;
306 [label="mse = 0.0\nsamples = 1\nvalue = 9.5"] ;
305 -> 306 ;
307 [label="mse = 0.0\nsamples = 11\nvalue = 9.6"] ;
305 -> 307 ;
308 [label="NMHC_measured <= 975.5\nmse = 0.034\nsamples = 47\nvalue = 9.961"] ;
288 -> 308 ;
309 [label="NMHC_measured <= 968.5\nmse = 0.006\nsamples = 22\nvalue = 9.774"] ;
308 -> 309 ;
310 [label="mse = 0.0\nsamples = 10\nvalue = 9.7"] ;
309 -> 310 ;
311 [label="NMHC_measured <= 971.5\nmse = 0.002\nsamples = 12\nvalue = 9.844"] ;
309 -> 311 ;
312 [label="mse = -0.0\nsamples = 5\nvalue = 9.8"] ;
311 -> 312 ;
313 [label="mse = -0.0\nsamples = 7\nvalue = 9.9"] ;
311 -> 313 ;
314 [label="NMHC_measured <= 983.5\nmse = 0.007\nsamples = 25\nvalue = 10.105"] ;
308 -> 314 ;
315 [label="NMHC_measured <= 979.5\nmse = 0.002\nsamples = 17\nvalue = 10.048"] ;
314 -> 315 ;
316 [label="mse = 0.0\nsamples = 8\nvalue = 10.0"] ;
315 -> 316 ;
317 [label="mse = 0.0\nsamples = 9\nvalue = 10.1"] ;
315 -> 317 ;
318 [label="mse = 0.0\nsamples = 8\nvalue = 10.2"] ;
314 -> 318 ;
319 [label="O3_measured <= 1000.953\nmse = 0.002\nsamples = 143\nvalue = 10.08"] ;
287 -> 319 ;
320 [label="mse = 0.0\nsamples = 1\nvalue = 9.4"] ;
319 -> 320 ;
321 [label="NO2_measured <= 1432.0\nmse = 0.0\nsamples = 142\nvalue = 10.083"] ;
319 -> 321 ;
322 [label="mse = 0.0\nsamples = 1\nvalue = 10.0"] ;
321 -> 322 ;
323 [label="temp <= 18.023\nmse = 0.0\nsamples = 141\nvalue = 10.083"] ;
321 -> 323 ;
324 [label="mse = 0.0\nsamples = 2\nvalue = 10.1"] ;
323 -> 324 ;
325 [label="mse = 0.0\nsamples = 139\nvalue = 10.083"] ;
323 -> 325 ;
326 [label="NMHC_measured <= 1002.5\nmse = 0.045\nsamples = 55\nvalue = 10.591"] ;
286 -> 326 ;
327 [label="NMHC_measured <= 994.5\nmse = 0.014\nsamples = 33\nvalue = 10.449"] ;
326 -> 327 ;
328 [label="NMHC_measured <= 991.0\nmse = 0.003\nsamples = 17\nvalue = 10.323"] ;
327 -> 328 ;
329 [label="temp <= 9.75\nmse = 0.0\nsamples = 12\nvalue = 10.295"] ;
328 -> 329 ;
330 [label="RH <= 38.9\nmse = 0.002\nsamples = 2\nvalue = 10.25"] ;
329 -> 330 ;
331 [label="mse = 0.0\nsamples = 1\nvalue = 10.3"] ;
330 -> 331 ;
332 [label="mse = -0.0\nsamples = 1\nvalue = 10.2"] ;
330 -> 332 ;
333 [label="mse = 0.0\nsamples = 10\nvalue = 10.3"] ;
329 -> 333 ;
334 [label="mse = -0.0\nsamples = 5\nvalue = 10.4"] ;
328 -> 334 ;
335 [label="NMHC_measured <= 997.5\nmse = 0.002\nsamples = 16\nvalue = 10.543"] ;
327 -> 335 ;
336 [label="mse = 0.0\nsamples = 8\nvalue = 10.5"] ;
335 -> 336 ;
337 [label="O3_measured <= 1530.0\nmse = 0.001\nsamples = 8\nvalue = 10.594"] ;
335 -> 337 ;
338 [label="mse = 0.0\nsamples = 7\nvalue = 10.6"] ;
337 -> 338 ;
339 [label="mse = 0.0\nsamples = 1\nvalue = 10.5"] ;
337 -> 339 ;
340 [label="NMHC_measured <= 1008.5\nmse = 0.007\nsamples = 22\nvalue = 10.824"] ;
326 -> 340 ;
341 [label="NMHC_measured <= 1005.5\nmse = 0.002\nsamples = 10\nvalue = 10.744"] ;
340 -> 341 ;
342 [label="mse = 0.0\nsamples = 6\nvalue = 10.7"] ;
341 -> 342 ;
343 [label="mse = -0.0\nsamples = 4\nvalue = 10.8"] ;
341 -> 343 ;
344 [label="mse = -0.0\nsamples = 12\nvalue = 10.9"] ;
340 -> 344 ;
345 [label="NMHC_measured <= 1044.5\nmse = 0.302\nsamples = 122\nvalue = 11.86"] ;
285 -> 345 ;
346 [label="NMHC_measured <= 1028.0\nmse = 0.064\nsamples = 59\nvalue = 11.337"] ;
345 -> 346 ;
347 [label="NMHC_measured <= 1021.0\nmse = 0.016\nsamples = 34\nvalue = 11.145"] ;
346 -> 347 ;
348 [label="NMHC_measured <= 1015.5\nmse = 0.005\nsamples = 19\nvalue = 11.052"] ;
347 -> 348 ;
349 [label="O3_measured <= 1320.5\nmse = 0.001\nsamples = 9\nvalue = 10.993"] ;
348 -> 349 ;
350 [label="mse = 0.0\nsamples = 8\nvalue = 11.0"] ;
349 -> 350 ;
351 [label="mse = -0.0\nsamples = 1\nvalue = 10.9"] ;
349 -> 351 ;
352 [label="temp <= 11.75\nmse = 0.001\nsamples = 10\nvalue = 11.115"] ;
348 -> 352 ;
353 [label="mse = 0.0\nsamples = 6\nvalue = 11.1"] ;
352 -> 353 ;
354 [label="temp <= 14.4\nmse = 0.002\nsamples = 4\nvalue = 11.14"] ;
352 -> 354 ;
355 [label="mse = 0.0\nsamples = 1\nvalue = 11.2"] ;
354 -> 355 ;
356 [label="mse = -0.0\nsamples = 3\nvalue = 11.1"] ;
354 -> 356 ;
357 [label="NMHC_measured <= 1023.5\nmse = 0.003\nsamples = 15\nvalue = 11.27"] ;
347 -> 357 ;
358 [label="mse = 0.0\nsamples = 5\nvalue = 11.2"] ;
357 -> 358 ;
359 [label="RH <= 28.1\nmse = 0.001\nsamples = 10\nvalue = 11.308"] ;
357 -> 359 ;
360 [label="mse = 0.0\nsamples = 1\nvalue = 11.4"] ;
359 -> 360 ;
361 [label="mse = -0.0\nsamples = 9\nvalue = 11.3"] ;
359 -> 361 ;
362 [label="NMHC_measured <= 1033.0\nmse = 0.018\nsamples = 25\nvalue = 11.581"] ;
346 -> 362 ;
363 [label="NMHC_measured <= 1030.5\nmse = 0.002\nsamples = 10\nvalue = 11.447"] ;
362 -> 363 ;
364 [label="mse = -0.0\nsamples = 5\nvalue = 11.4"] ;
363 -> 364 ;
365 [label="mse = 0.0\nsamples = 5\nvalue = 11.5"] ;
363 -> 365 ;
366 [label="NMHC_measured <= 1038.0\nmse = 0.007\nsamples = 15\nvalue = 11.673"] ;
362 -> 366 ;
367 [label="mse = 0.0\nsamples = 8\nvalue = 11.6"] ;
366 -> 367 ;
368 [label="NMHC_measured <= 1040.5\nmse = 0.002\nsamples = 7\nvalue = 11.76"] ;
366 -> 368 ;
369 [label="mse = 0.0\nsamples = 3\nvalue = 11.7"] ;
368 -> 369 ;
370 [label="mse = 0.0\nsamples = 4\nvalue = 11.8"] ;
368 -> 370 ;
371 [label="NMHC_measured <= 1058.0\nmse = 0.078\nsamples = 63\nvalue = 12.3"] ;
345 -> 371 ;
372 [label="NMHC_measured <= 1051.0\nmse = 0.011\nsamples = 21\nvalue = 12.003"] ;
371 -> 372 ;
373 [label="NMHC_measured <= 1048.5\nmse = 0.002\nsamples = 14\nvalue = 11.925"] ;
372 -> 373 ;
374 [label="mse = -0.0\nsamples = 11\nvalue = 11.9"] ;
373 -> 374 ;
375 [label="mse = 0.0\nsamples = 3\nvalue = 12.0"] ;
373 -> 375 ;
376 [label="NMHC_measured <= 1055.0\nmse = 0.002\nsamples = 7\nvalue = 12.119"] ;
372 -> 376 ;
377 [label="mse = 0.0\nsamples = 5\nvalue = 12.1"] ;
376 -> 377 ;
378 [label="mse = 0.0\nsamples = 2\nvalue = 12.2"] ;
376 -> 378 ;
379 [label="NMHC_measured <= 1068.5\nmse = 0.025\nsamples = 42\nvalue = 12.498"] ;
371 -> 379 ;
380 [label="NMHC_measured <= 1062.5\nmse = 0.005\nsamples = 24\nvalue = 12.389"] ;
379 -> 380 ;
381 [label="mse = -0.0\nsamples = 8\nvalue = 12.3"] ;
380 -> 381 ;
382 [label="NMHC_measured <= 1065.5\nmse = 0.002\nsamples = 16\nvalue = 12.432"] ;
380 -> 382 ;
383 [label="mse = 0.0\nsamples = 10\nvalue = 12.4"] ;
382 -> 383 ;
384 [label="mse = 0.0\nsamples = 6\nvalue = 12.5"] ;
382 -> 384 ;
385 [label="NMHC_measured <= 1073.0\nmse = 0.007\nsamples = 18\nvalue = 12.674"] ;
379 -> 385 ;
386 [label="mse = 0.0\nsamples = 9\nvalue = 12.6"] ;
385 -> 386 ;
387 [label="NMHC_measured <= 1075.5\nmse = 0.002\nsamples = 9\nvalue = 12.755"] ;
385 -> 387 ;
388 [label="mse = 0.0\nsamples = 4\nvalue = 12.7"] ;
387 -> 388 ;
389 [label="mse = 0.0\nsamples = 5\nvalue = 12.8"] ;
387 -> 389 ;
390 [label="NMHC_measured <= 1354.5\nmse = 36.997\nsamples = 510\nvalue = 19.615"] ;
0 -> 390 [labeldistance=2.5, labelangle=-45, headlabel="False"] ;
391 [label="NMHC_measured <= 1205.0\nmse = 5.672\nsamples = 374\nvalue = 16.578"] ;
390 -> 391 ;
392 [label="NMHC_measured <= 1143.5\nmse = 1.317\nsamples = 214\nvalue = 14.834"] ;
391 -> 392 ;
393 [label="NMHC_measured <= 1111.5\nmse = 0.37\nsamples = 107\nvalue = 13.859"] ;
392 -> 393 ;
394 [label="NMHC_measured <= 1095.5\nmse = 0.078\nsamples = 53\nvalue = 13.308"] ;
393 -> 394 ;
395 [label="NMHC_measured <= 1088.5\nmse = 0.021\nsamples = 30\nvalue = 13.093"] ;
394 -> 395 ;
396 [label="NMHC_measured <= 1082.5\nmse = 0.003\nsamples = 15\nvalue = 12.981"] ;
395 -> 396 ;
397 [label="mse = -0.0\nsamples = 5\nvalue = 12.9"] ;
396 -> 397 ;
398 [label="NMHC_measured <= 1085.5\nmse = 0.001\nsamples = 10\nvalue = 13.011"] ;
396 -> 398 ;
399 [label="mse = 0.0\nsamples = 8\nvalue = 13.0"] ;
398 -> 399 ;
400 [label="mse = 0.0\nsamples = 2\nvalue = 13.1"] ;
398 -> 400 ;
401 [label="NMHC_measured <= 1092.5\nmse = 0.002\nsamples = 15\nvalue = 13.256"] ;
395 -> 401 ;
402 [label="mse = -0.0\nsamples = 7\nvalue = 13.2"] ;
401 -> 402 ;
403 [label="mse = 0.0\nsamples = 8\nvalue = 13.3"] ;
401 -> 403 ;
404 [label="NMHC_measured <= 1103.0\nmse = 0.022\nsamples = 23\nvalue = 13.569"] ;
394 -> 404 ;
405 [label="NMHC_measured <= 1098.5\nmse = 0.004\nsamples = 13\nvalue = 13.45"] ;
404 -> 405 ;
406 [label="mse = -0.0\nsamples = 7\nvalue = 13.4"] ;
405 -> 406 ;
407 [label="temp <= 8.65\nmse = 0.001\nsamples = 6\nvalue = 13.511"] ;
405 -> 407 ;
408 [label="mse = 0.0\nsamples = 1\nvalue = 13.6"] ;
407 -> 408 ;
409 [label="mse = 0.0\nsamples = 5\nvalue = 13.5"] ;
407 -> 409 ;
410 [label="NMHC_measured <= 1109.0\nmse = 0.005\nsamples = 10\nvalue = 13.719"] ;
404 -> 410 ;
411 [label="O3_measured <= 1496.5\nmse = 0.002\nsamples = 6\nvalue = 13.67"] ;
410 -> 411 ;
412 [label="mse = 0.0\nsamples = 4\nvalue = 13.7"] ;
411 -> 412 ;
413 [label="mse = 0.0\nsamples = 2\nvalue = 13.6"] ;
411 -> 413 ;
414 [label="mse = -0.0\nsamples = 4\nvalue = 13.8"] ;
410 -> 414 ;
415 [label="NMHC_measured <= 1128.5\nmse = 0.082\nsamples = 54\nvalue = 14.385"] ;
393 -> 415 ;
416 [label="NMHC_measured <= 1121.5\nmse = 0.024\nsamples = 25\nvalue = 14.121"] ;
415 -> 416 ;
417 [label="NMHC_measured <= 1115.0\nmse = 0.004\nsamples = 13\nvalue = 13.967"] ;
416 -> 417 ;
418 [label="mse = 0.0\nsamples = 6\nvalue = 13.9"] ;
417 -> 418 ;
419 [label="NMHC_measured <= 1119.5\nmse = 0.002\nsamples = 7\nvalue = 14.02"] ;
417 -> 419 ;
420 [label="mse = 0.0\nsamples = 5\nvalue = 14.0"] ;
419 -> 420 ;
421 [label="mse = 0.0\nsamples = 2\nvalue = 14.1"] ;
419 -> 421 ;
422 [label="NMHC_measured <= 1125.0\nmse = 0.003\nsamples = 12\nvalue = 14.252"] ;
416 -> 422 ;
423 [label="mse = 0.0\nsamples = 5\nvalue = 14.2"] ;
422 -> 423 ;
424 [label="temp <= 17.2\nmse = 0.001\nsamples = 7\nvalue = 14.31"] ;
422 -> 424 ;
425 [label="mse = -0.0\nsamples = 6\nvalue = 14.3"] ;
424 -> 425 ;
426 [label="mse = -0.0\nsamples = 1\nvalue = 14.4"] ;
424 -> 426 ;
427 [label="NMHC_measured <= 1137.5\nmse = 0.019\nsamples = 29\nvalue = 14.613"] ;
415 -> 427 ;
428 [label="NMHC_measured <= 1134.5\nmse = 0.006\nsamples = 18\nvalue = 14.518"] ;
427 -> 428 ;
429 [label="NMHC_measured <= 1131.5\nmse = 0.002\nsamples = 12\nvalue = 14.465"] ;
428 -> 429 ;
430 [label="mse = 0.0\nsamples = 4\nvalue = 14.4"] ;
429 -> 430 ;
431 [label="mse = -0.0\nsamples = 8\nvalue = 14.5"] ;
429 -> 431 ;
432 [label="mse = 0.0\nsamples = 6\nvalue = 14.6"] ;
428 -> 432 ;
433 [label="NMHC_measured <= 1140.5\nmse = 0.002\nsamples = 11\nvalue = 14.771"] ;
427 -> 433 ;
434 [label="mse = 0.0\nsamples = 5\nvalue = 14.7"] ;
433 -> 434 ;
435 [label="mse = 0.0\nsamples = 6\nvalue = 14.8"] ;
433 -> 435 ;
436 [label="NMHC_measured <= 1176.5\nmse = 0.339\nsamples = 107\nvalue = 15.821"] ;
392 -> 436 ;
437 [label="NMHC_measured <= 1160.5\nmse = 0.082\nsamples = 56\nvalue = 15.368"] ;
436 -> 437 ;
438 [label="NMHC_measured <= 1153.5\nmse = 0.025\nsamples = 26\nvalue = 15.098"] ;
437 -> 438 ;
439 [label="NMHC_measured <= 1150.5\nmse = 0.008\nsamples = 19\nvalue = 15.0"] ;
438 -> 439 ;
440 [label="NMHC_measured <= 1147.5\nmse = 0.002\nsamples = 12\nvalue = 14.935"] ;
439 -> 440 ;
441 [label="mse = 0.0\nsamples = 6\nvalue = 14.9"] ;
440 -> 441 ;
442 [label="mse = -0.0\nsamples = 6\nvalue = 15.0"] ;
440 -> 442 ;
443 [label="mse = -0.0\nsamples = 7\nvalue = 15.1"] ;
439 -> 443 ;
444 [label="NMHC_measured <= 1155.5\nmse = 0.001\nsamples = 7\nvalue = 15.293"] ;
438 -> 444 ;
445 [label="mse = 0.0\nsamples = 1\nvalue = 15.2"] ;
444 -> 445 ;
446 [label="mse = 0.0\nsamples = 6\nvalue = 15.3"] ;
444 -> 446 ;
447 [label="NMHC_measured <= 1165.5\nmse = 0.015\nsamples = 30\nvalue = 15.6"] ;
437 -> 447 ;
448 [label="NMHC_measured <= 1162.5\nmse = 0.002\nsamples = 13\nvalue = 15.468"] ;
447 -> 448 ;
449 [label="mse = 0.0\nsamples = 4\nvalue = 15.4"] ;
448 -> 449 ;
450 [label="mse = 0.0\nsamples = 9\nvalue = 15.5"] ;
448 -> 450 ;
451 [label="NMHC_measured <= 1168.5\nmse = 0.005\nsamples = 17\nvalue = 15.683"] ;
447 -> 451 ;
452 [label="mse = 0.0\nsamples = 8\nvalue = 15.6"] ;
451 -> 452 ;
453 [label="NMHC_measured <= 1171.0\nmse = 0.002\nsamples = 9\nvalue = 15.732"] ;
451 -> 453 ;
454 [label="mse = 0.0\nsamples = 5\nvalue = 15.7"] ;
453 -> 454 ;
455 [label="mse = 0.0\nsamples = 4\nvalue = 15.8"] ;
453 -> 455 ;
456 [label="NMHC_measured <= 1190.5\nmse = 0.069\nsamples = 51\nvalue = 16.401"] ;
436 -> 456 ;
457 [label="NMHC_measured <= 1185.0\nmse = 0.02\nsamples = 19\nvalue = 16.115"] ;
456 -> 457 ;
458 [label="NMHC_measured <= 1181.5\nmse = 0.006\nsamples = 10\nvalue = 16.012"] ;
457 -> 458 ;
459 [label="O3_measured <= 1424.5\nmse = 0.002\nsamples = 7\nvalue = 15.96"] ;
458 -> 459 ;
460 [label="mse = 0.0\nsamples = 3\nvalue = 16.0"] ;
459 -> 460 ;
461 [label="O3_measured <= 1694.5\nmse = 0.002\nsamples = 4\nvalue = 15.92"] ;
459 -> 461 ;
462 [label="mse = 0.0\nsamples = 3\nvalue = 15.9"] ;
461 -> 462 ;
463 [label="mse = 0.0\nsamples = 1\nvalue = 16.0"] ;
461 -> 463 ;
464 [label="mse = 0.0\nsamples = 3\nvalue = 16.1"] ;
458 -> 464 ;
465 [label="NMHC_measured <= 1187.5\nmse = 0.002\nsamples = 9\nvalue = 16.264"] ;
457 -> 465 ;
466 [label="mse = 0.0\nsamples = 4\nvalue = 16.2"] ;
465 -> 466 ;
467 [label="mse = 0.0\nsamples = 5\nvalue = 16.3"] ;
465 -> 467 ;
468 [label="NMHC_measured <= 1196.5\nmse = 0.019\nsamples = 32\nvalue = 16.577"] ;
456 -> 468 ;
469 [label="NMHC_measured <= 1194.0\nmse = 0.002\nsamples = 14\nvalue = 16.44"] ;
468 -> 469 ;
470 [label="mse = -0.0\nsamples = 8\nvalue = 16.4"] ;
469 -> 470 ;
471 [label="mse = 0.0\nsamples = 6\nvalue = 16.5"] ;
469 -> 471 ;
472 [label="NMHC_measured <= 1199.0\nmse = 0.003\nsamples = 18\nvalue = 16.692"] ;
468 -> 472 ;
473 [label="mse = 0.0\nsamples = 5\nvalue = 16.6"] ;
472 -> 473 ;
474 [label="NMHC_measured <= 1202.5\nmse = 0.001\nsamples = 13\nvalue = 16.716"] ;
472 -> 474 ;
475 [label="mse = 0.0\nsamples = 10\nvalue = 16.7"] ;
474 -> 475 ;
476 [label="mse = -0.0\nsamples = 3\nvalue = 16.8"] ;
474 -> 476 ;
477 [label="NMHC_measured <= 1276.0\nmse = 2.248\nsamples = 160\nvalue = 18.843"] ;
391 -> 477 ;
478 [label="NMHC_measured <= 1234.5\nmse = 0.347\nsamples = 102\nvalue = 17.833"] ;
477 -> 478 ;
479 [label="NMHC_measured <= 1220.5\nmse = 0.094\nsamples = 52\nvalue = 17.375"] ;
478 -> 479 ;
480 [label="NMHC_measured <= 1214.0\nmse = 0.027\nsamples = 27\nvalue = 17.107"] ;
479 -> 480 ;
481 [label="NMHC_measured <= 1208.5\nmse = 0.008\nsamples = 14\nvalue = 16.978"] ;
480 -> 481 ;
482 [label="mse = -0.0\nsamples = 7\nvalue = 16.9"] ;
481 -> 482 ;
483 [label="NMHC_measured <= 1211.5\nmse = 0.002\nsamples = 7\nvalue = 17.064"] ;
481 -> 483 ;
484 [label="mse = 0.0\nsamples = 3\nvalue = 17.0"] ;
483 -> 484 ;
485 [label="mse = 0.0\nsamples = 4\nvalue = 17.1"] ;
483 -> 485 ;
486 [label="NMHC_measured <= 1217.5\nmse = 0.002\nsamples = 13\nvalue = 17.272"] ;
480 -> 486 ;
487 [label="mse = 0.0\nsamples = 5\nvalue = 17.2"] ;
486 -> 487 ;
488 [label="mse = 0.0\nsamples = 8\nvalue = 17.3"] ;
486 -> 488 ;
489 [label="NMHC_measured <= 1228.5\nmse = 0.025\nsamples = 25\nvalue = 17.63"] ;
479 -> 489 ;
490 [label="NMHC_measured <= 1223.5\nmse = 0.007\nsamples = 15\nvalue = 17.491"] ;
489 -> 490 ;
491 [label="mse = -0.0\nsamples = 7\nvalue = 17.4"] ;
490 -> 491 ;
492 [label="NMHC_measured <= 1225.5\nmse = 0.002\nsamples = 8\nvalue = 17.554"] ;
490 -> 492 ;
493 [label="mse = 0.0\nsamples = 3\nvalue = 17.5"] ;
492 -> 493 ;
494 [label="mse = 0.0\nsamples = 5\nvalue = 17.6"] ;
492 -> 494 ;
495 [label="NMHC_measured <= 1232.0\nmse = 0.002\nsamples = 10\nvalue = 17.776"] ;
489 -> 495 ;
496 [label="mse = 0.0\nsamples = 3\nvalue = 17.7"] ;
495 -> 496 ;
497 [label="mse = -0.0\nsamples = 7\nvalue = 17.8"] ;
495 -> 497 ;
498 [label="NMHC_measured <= 1249.5\nmse = 0.131\nsamples = 50\nvalue = 18.347"] ;
478 -> 498 ;
499 [label="NMHC_measured <= 1244.5\nmse = 0.017\nsamples = 24\nvalue = 18.062"] ;
498 -> 499 ;
500 [label="NMHC_measured <= 1240.5\nmse = 0.005\nsamples = 17\nvalue = 18.0"] ;
499 -> 500 ;
501 [label="NMHC_measured <= 1237.0\nmse = 0.002\nsamples = 11\nvalue = 17.967"] ;
500 -> 501 ;
502 [label="mse = 0.0\nsamples = 2\nvalue = 17.9"] ;
501 -> 502 ;
503 [label="RH <= 41.45\nmse = 0.001\nsamples = 9\nvalue = 17.984"] ;
501 -> 503 ;
504 [label="mse = 0.0\nsamples = 1\nvalue = 17.9"] ;
503 -> 504 ;
505 [label="O3_measured <= 1370.0\nmse = 0.001\nsamples = 8\nvalue = 17.994"] ;
503 -> 505 ;
506 [label="mse = 0.0\nsamples = 1\nvalue = 17.9"] ;
505 -> 506 ;
507 [label="mse = 0.0\nsamples = 7\nvalue = 18.0"] ;
505 -> 507 ;
508 [label="mse = -0.0\nsamples = 6\nvalue = 18.1"] ;
500 -> 508 ;
509 [label="NMHC_measured <= 1246.5\nmse = 0.002\nsamples = 7\nvalue = 18.26"] ;
499 -> 509 ;
510 [label="mse = 0.0\nsamples = 3\nvalue = 18.2"] ;
509 -> 510 ;
511 [label="mse = -0.0\nsamples = 4\nvalue = 18.3"] ;
509 -> 511 ;
512 [label="NMHC_measured <= 1258.0\nmse = 0.042\nsamples = 26\nvalue = 18.709"] ;
498 -> 512 ;
513 [label="NMHC_measured <= 1255.5\nmse = 0.005\nsamples = 12\nvalue = 18.507"] ;
512 -> 513 ;
514 [label="NMHC_measured <= 1252.0\nmse = 0.002\nsamples = 9\nvalue = 18.47"] ;
513 -> 514 ;
515 [label="mse = 0.0\nsamples = 3\nvalue = 18.4"] ;
514 -> 515 ;
516 [label="mse = -0.0\nsamples = 6\nvalue = 18.5"] ;
514 -> 516 ;
517 [label="mse = -0.0\nsamples = 3\nvalue = 18.6"] ;
513 -> 517 ;
518 [label="NMHC_measured <= 1266.0\nmse = 0.017\nsamples = 14\nvalue = 18.858"] ;
512 -> 518 ;
519 [label="O3_measured <= 1566.0\nmse = 0.002\nsamples = 8\nvalue = 18.777"] ;
518 -> 519 ;
520 [label="mse = 0.0\nsamples = 2\nvalue = 18.7"] ;
519 -> 520 ;
521 [label="mse = 0.0\nsamples = 6\nvalue = 18.8"] ;
519 -> 521 ;
522 [label="NMHC_measured <= 1272.0\nmse = 0.006\nsamples = 6\nvalue = 19.033"] ;
518 -> 522 ;
523 [label="mse = 0.0\nsamples = 5\nvalue = 19.0"] ;
522 -> 523 ;
524 [label="mse = -0.0\nsamples = 1\nvalue = 19.2"] ;
522 -> 524 ;
525 [label="NMHC_measured <= 1318.0\nmse = 0.726\nsamples = 58\nvalue = 20.588"] ;
477 -> 525 ;
526 [label="NMHC_measured <= 1296.0\nmse = 0.142\nsamples = 35\nvalue = 19.928"] ;
525 -> 526 ;
527 [label="NMHC_measured <= 1286.5\nmse = 0.04\nsamples = 20\nvalue = 19.641"] ;
526 -> 527 ;
528 [label="RH <= 55.8\nmse = 0.012\nsamples = 8\nvalue = 19.446"] ;
527 -> 528 ;
529 [label="AH <= 0.568\nmse = 0.003\nsamples = 3\nvalue = 19.55"] ;
528 -> 529 ;
530 [label="mse = 0.0\nsamples = 1\nvalue = 19.6"] ;
529 -> 530 ;
531 [label="mse = -0.0\nsamples = 2\nvalue = 19.5"] ;
529 -> 531 ;
532 [label="NMHC_measured <= 1279.0\nmse = 0.002\nsamples = 5\nvalue = 19.357"] ;
528 -> 532 ;
533 [label="mse = 0.0\nsamples = 3\nvalue = 19.3"] ;
532 -> 533 ;
534 [label="mse = 0.0\nsamples = 2\nvalue = 19.4"] ;
532 -> 534 ;
535 [label="NMHC_measured <= 1292.5\nmse = 0.006\nsamples = 12\nvalue = 19.8"] ;
527 -> 535 ;
536 [label="NMHC_measured <= 1289.5\nmse = 0.002\nsamples = 8\nvalue = 19.755"] ;
535 -> 536 ;
537 [label="mse = 0.0\nsamples = 4\nvalue = 19.7"] ;
536 -> 537 ;
538 [label="mse = 0.0\nsamples = 4\nvalue = 19.8"] ;
536 -> 538 ;
539 [label="mse = 0.0\nsamples = 4\nvalue = 19.9"] ;
535 -> 539 ;
540 [label="NMHC_measured <= 1306.0\nmse = 0.047\nsamples = 15\nvalue = 20.275"] ;
526 -> 540 ;
541 [label="NMHC_measured <= 1300.5\nmse = 0.007\nsamples = 9\nvalue = 20.12"] ;
540 -> 541 ;
542 [label="O3_measured <= 1835.0\nmse = 0.001\nsamples = 7\nvalue = 20.083"] ;
541 -> 542 ;
543 [label="mse = 0.0\nsamples = 6\nvalue = 20.1"] ;
542 -> 543 ;
544 [label="mse = 0.0\nsamples = 1\nvalue = 20.0"] ;
542 -> 544 ;
545 [label="AH <= 0.761\nmse = 0.002\nsamples = 2\nvalue = 20.267"] ;
541 -> 545 ;
546 [label="mse = 0.0\nsamples = 1\nvalue = 20.2"] ;
545 -> 546 ;
547 [label="mse = 0.0\nsamples = 1\nvalue = 20.3"] ;
545 -> 547 ;
548 [label="NO2_measured <= 1683.0\nmse = 0.007\nsamples = 6\nvalue = 20.533"] ;
540 -> 548 ;
549 [label="mse = -0.0\nsamples = 3\nvalue = 20.6"] ;
548 -> 549 ;
550 [label="AH <= 1.049\nmse = 0.003\nsamples = 3\nvalue = 20.45"] ;
548 -> 550 ;
551 [label="mse = 0.0\nsamples = 1\nvalue = 20.4"] ;
550 -> 551 ;
552 [label="mse = 0.0\nsamples = 2\nvalue = 20.5"] ;
550 -> 552 ;
553 [label="NMHC_measured <= 1335.5\nmse = 0.125\nsamples = 23\nvalue = 21.485"] ;
525 -> 553 ;
554 [label="NMHC_measured <= 1327.5\nmse = 0.029\nsamples = 10\nvalue = 21.161"] ;
553 -> 554 ;
555 [label="NOx_measured <= 613.5\nmse = 0.004\nsamples = 5\nvalue = 21.02"] ;
554 -> 555 ;
556 [label="temp <= 19.3\nmse = 0.001\nsamples = 4\nvalue = 20.986"] ;
555 -> 556 ;
557 [label="mse = 0.0\nsamples = 3\nvalue = 21.0"] ;
556 -> 557 ;
558 [label="mse = -0.0\nsamples = 1\nvalue = 20.9"] ;
556 -> 558 ;
559 [label="mse = 0.0\nsamples = 1\nvalue = 21.1"] ;
555 -> 559 ;
560 [label="NMHC_measured <= 1332.5\nmse = 0.005\nsamples = 5\nvalue = 21.338"] ;
554 -> 560 ;
561 [label="CO_measured <= 1402.0\nmse = 0.002\nsamples = 2\nvalue = 21.267"] ;
560 -> 561 ;
562 [label="mse = 0.0\nsamples = 1\nvalue = 21.3"] ;
561 -> 562 ;
563 [label="mse = 0.0\nsamples = 1\nvalue = 21.2"] ;
561 -> 563 ;
564 [label="RH <= 64.35\nmse = 0.002\nsamples = 3\nvalue = 21.38"] ;
560 -> 564 ;
565 [label="mse = 0.0\nsamples = 2\nvalue = 21.4"] ;
564 -> 565 ;
566 [label="mse = 0.0\nsamples = 1\nvalue = 21.3"] ;
564 -> 566 ;
567 [label="NMHC_measured <= 1343.5\nmse = 0.04\nsamples = 13\nvalue = 21.762"] ;
553 -> 567 ;
568 [label="NMHC_measured <= 1338.5\nmse = 0.006\nsamples = 6\nvalue = 21.591"] ;
567 -> 568 ;
569 [label="mse = 0.0\nsamples = 2\nvalue = 21.5"] ;
568 -> 569 ;
570 [label="AH <= 0.928\nmse = 0.002\nsamples = 4\nvalue = 21.643"] ;
568 -> 570 ;
571 [label="mse = 0.0\nsamples = 2\nvalue = 21.7"] ;
570 -> 571 ;
572 [label="mse = -0.0\nsamples = 2\nvalue = 21.6"] ;
570 -> 572 ;
573 [label="NMHC_measured <= 1349.0\nmse = 0.011\nsamples = 7\nvalue = 21.95"] ;
567 -> 573 ;
574 [label="mse = 0.0\nsamples = 3\nvalue = 21.8"] ;
573 -> 574 ;
575 [label="AH <= 0.621\nmse = 0.001\nsamples = 4\nvalue = 22.014"] ;
573 -> 575 ;
576 [label="mse = 0.0\nsamples = 1\nvalue = 22.1"] ;
575 -> 576 ;
577 [label="mse = 0.0\nsamples = 3\nvalue = 22.0"] ;
575 -> 577 ;
578 [label="NMHC_measured <= 1601.0\nmse = 30.898\nsamples = 136\nvalue = 27.652"] ;
390 -> 578 ;
579 [label="NMHC_measured <= 1459.0\nmse = 6.611\nsamples = 112\nvalue = 25.795"] ;
578 -> 579 ;
580 [label="NMHC_measured <= 1407.5\nmse = 1.132\nsamples = 68\nvalue = 23.888"] ;
579 -> 580 ;
581 [label="NMHC_measured <= 1384.5\nmse = 0.328\nsamples = 42\nvalue = 23.209"] ;
580 -> 581 ;
582 [label="NMHC_measured <= 1368.5\nmse = 0.105\nsamples = 25\nvalue = 22.744"] ;
581 -> 582 ;
583 [label="NMHC_measured <= 1360.5\nmse = 0.016\nsamples = 10\nvalue = 22.379"] ;
582 -> 583 ;
584 [label="NOx_measured <= 434.5\nmse = 0.002\nsamples = 3\nvalue = 22.24"] ;
583 -> 584 ;
585 [label="mse = 0.0\nsamples = 1\nvalue = 22.3"] ;
584 -> 585 ;
586 [label="mse = 0.0\nsamples = 2\nvalue = 22.2"] ;
584 -> 586 ;
587 [label="NMHC_measured <= 1364.0\nmse = 0.007\nsamples = 7\nvalue = 22.456"] ;
583 -> 587 ;
588 [label="mse = 0.0\nsamples = 5\nvalue = 22.4"] ;
587 -> 588 ;
589 [label="RH <= 54.15\nmse = 0.002\nsamples = 2\nvalue = 22.567"] ;
587 -> 589 ;
590 [label="mse = 0.0\nsamples = 1\nvalue = 22.5"] ;
589 -> 590 ;
591 [label="mse = -0.0\nsamples = 1\nvalue = 22.6"] ;
589 -> 591 ;
592 [label="NMHC_measured <= 1376.5\nmse = 0.022\nsamples = 15\nvalue = 22.977"] ;
582 -> 592 ;
593 [label="NMHC_measured <= 1372.5\nmse = 0.007\nsamples = 8\nvalue = 22.833"] ;
592 -> 593 ;
594 [label="mse = 0.0\nsamples = 2\nvalue = 22.7"] ;
593 -> 594 ;
595 [label="RH <= 49.95\nmse = 0.002\nsamples = 6\nvalue = 22.871"] ;
593 -> 595 ;
596 [label="mse = 0.0\nsamples = 1\nvalue = 22.8"] ;
595 -> 596 ;
597 [label="mse = -0.0\nsamples = 5\nvalue = 22.9"] ;
595 -> 597 ;
598 [label="NMHC_measured <= 1378.5\nmse = 0.008\nsamples = 7\nvalue = 23.077"] ;
592 -> 598 ;
599 [label="mse = 0.0\nsamples = 3\nvalue = 23.0"] ;
598 -> 599 ;
600 [label="NMHC_measured <= 1381.5\nmse = 0.002\nsamples = 4\nvalue = 23.167"] ;
598 -> 600 ;
601 [label="mse = 0.0\nsamples = 2\nvalue = 23.1"] ;
600 -> 601 ;
602 [label="mse = 0.0\nsamples = 2\nvalue = 23.2"] ;
600 -> 602 ;
603 [label="NMHC_measured <= 1396.5\nmse = 0.08\nsamples = 17\nvalue = 23.715"] ;
581 -> 603 ;
604 [label="NMHC_measured <= 1389.5\nmse = 0.011\nsamples = 7\nvalue = 23.459"] ;
603 -> 604 ;
605 [label="RH <= 59.25\nmse = 0.002\nsamples = 3\nvalue = 23.333"] ;
604 -> 605 ;
606 [label="mse = 0.0\nsamples = 2\nvalue = 23.3"] ;
605 -> 606 ;
607 [label="mse = 0.0\nsamples = 1\nvalue = 23.4"] ;
605 -> 607 ;
608 [label="RH <= 59.3\nmse = 0.002\nsamples = 4\nvalue = 23.527"] ;
604 -> 608 ;
609 [label="mse = 0.0\nsamples = 3\nvalue = 23.5"] ;
608 -> 609 ;
610 [label="mse = -0.0\nsamples = 1\nvalue = 23.6"] ;
608 -> 610 ;
611 [label="NMHC_measured <= 1401.0\nmse = 0.01\nsamples = 10\nvalue = 23.988"] ;
603 -> 611 ;
612 [label="mse = 0.0\nsamples = 2\nvalue = 23.8"] ;
611 -> 612 ;
613 [label="NMHC_measured <= 1405.5\nmse = 0.002\nsamples = 8\nvalue = 24.031"] ;
611 -> 613 ;
614 [label="mse = 0.0\nsamples = 6\nvalue = 24.0"] ;
613 -> 614 ;
615 [label="mse = -0.0\nsamples = 2\nvalue = 24.1"] ;
613 -> 615 ;
616 [label="NMHC_measured <= 1431.0\nmse = 0.293\nsamples = 26\nvalue = 25.09"] ;
580 -> 616 ;
617 [label="NMHC_measured <= 1417.5\nmse = 0.048\nsamples = 11\nvalue = 24.565"] ;
616 -> 617 ;
618 [label="NMHC_measured <= 1412.5\nmse = 0.014\nsamples = 5\nvalue = 24.343"] ;
617 -> 618 ;
619 [label="O3_measured <= 2002.0\nmse = 0.003\nsamples = 3\nvalue = 24.25"] ;
618 -> 619 ;
620 [label="mse = 0.0\nsamples = 2\nvalue = 24.2"] ;
619 -> 620 ;
621 [label="mse = 0.0\nsamples = 1\nvalue = 24.3"] ;
619 -> 621 ;
622 [label="RH <= 65.65\nmse = 0.002\nsamples = 2\nvalue = 24.467"] ;
618 -> 622 ;
623 [label="mse = 0.0\nsamples = 1\nvalue = 24.4"] ;
622 -> 623 ;
624 [label="mse = -0.0\nsamples = 1\nvalue = 24.5"] ;
622 -> 624 ;
625 [label="NMHC_measured <= 1423.0\nmse = 0.014\nsamples = 6\nvalue = 24.72"] ;
617 -> 625 ;
626 [label="NO2_measured <= 1628.5\nmse = 0.002\nsamples = 4\nvalue = 24.657"] ;
625 -> 626 ;
627 [label="mse = 0.0\nsamples = 2\nvalue = 24.7"] ;
626 -> 627 ;
628 [label="mse = 0.0\nsamples = 2\nvalue = 24.6"] ;
626 -> 628 ;
629 [label="NMHC_measured <= 1427.5\nmse = 0.009\nsamples = 2\nvalue = 24.867"] ;
625 -> 629 ;
630 [label="mse = 0.0\nsamples = 1\nvalue = 24.8"] ;
629 -> 630 ;
631 [label="mse = 0.0\nsamples = 1\nvalue = 25.0"] ;
629 -> 631 ;
632 [label="NMHC_measured <= 1444.0\nmse = 0.104\nsamples = 15\nvalue = 25.495"] ;
616 -> 632 ;
633 [label="NMHC_measured <= 1435.0\nmse = 0.015\nsamples = 9\nvalue = 25.254"] ;
632 -> 633 ;
634 [label="NMHC_measured <= 1433.0\nmse = 0.002\nsamples = 4\nvalue = 25.157"] ;
633 -> 634 ;
635 [label="mse = -0.0\nsamples = 2\nvalue = 25.1"] ;
634 -> 635 ;
636 [label="mse = -0.0\nsamples = 2\nvalue = 25.2"] ;
634 -> 636 ;
637 [label="NMHC_measured <= 1438.5\nmse = 0.006\nsamples = 5\nvalue = 25.367"] ;
633 -> 637 ;
638 [label="mse = 0.0\nsamples = 2\nvalue = 25.3"] ;
637 -> 638 ;
639 [label="RH <= 61.55\nmse = 0.002\nsamples = 3\nvalue = 25.433"] ;
637 -> 639 ;
640 [label="mse = 0.0\nsamples = 2\nvalue = 25.4"] ;
639 -> 640 ;
641 [label="mse = -0.0\nsamples = 1\nvalue = 25.5"] ;
639 -> 641 ;
642 [label="NMHC_measured <= 1452.5\nmse = 0.027\nsamples = 6\nvalue = 25.844"] ;
632 -> 642 ;
643 [label="O3_measured <= 1927.5\nmse = 0.002\nsamples = 3\nvalue = 25.733"] ;
642 -> 643 ;
644 [label="mse = 0.0\nsamples = 2\nvalue = 25.7"] ;
643 -> 644 ;
645 [label="mse = 0.0\nsamples = 1\nvalue = 25.8"] ;
643 -> 645 ;
646 [label="AH <= 0.777\nmse = 0.002\nsamples = 3\nvalue = 26.067"] ;
642 -> 646 ;
647 [label="mse = 0.0\nsamples = 1\nvalue = 26.0"] ;
646 -> 647 ;
648 [label="mse = 0.0\nsamples = 2\nvalue = 26.1"] ;
646 -> 648 ;
649 [label="NMHC_measured <= 1521.5\nmse = 2.188\nsamples = 44\nvalue = 28.436"] ;
579 -> 649 ;
650 [label="NMHC_measured <= 1487.5\nmse = 0.442\nsamples = 27\nvalue = 27.429"] ;
649 -> 650 ;
651 [label="NMHC_measured <= 1476.0\nmse = 0.138\nsamples = 15\nvalue = 26.776"] ;
650 -> 651 ;
652 [label="CO_measured <= 1520.5\nmse = 0.024\nsamples = 9\nvalue = 26.475"] ;
651 -> 652 ;
653 [label="O3_measured <= 1610.0\nmse = 0.005\nsamples = 4\nvalue = 26.3"] ;
652 -> 653 ;
654 [label="mse = 0.0\nsamples = 1\nvalue = 26.4"] ;
653 -> 654 ;
655 [label="temp <= 17.7\nmse = 0.002\nsamples = 3\nvalue = 26.267"] ;
653 -> 655 ;
656 [label="mse = 0.0\nsamples = 2\nvalue = 26.3"] ;
655 -> 656 ;
657 [label="mse = -0.0\nsamples = 1\nvalue = 26.2"] ;
655 -> 657 ;
658 [label="NMHC_measured <= 1472.0\nmse = 0.01\nsamples = 5\nvalue = 26.562"] ;
652 -> 658 ;
659 [label="temp <= 11.7\nmse = 0.002\nsamples = 4\nvalue = 26.529"] ;
658 -> 659 ;
660 [label="mse = 0.0\nsamples = 1\nvalue = 26.6"] ;
659 -> 660 ;
661 [label="mse = 0.0\nsamples = 3\nvalue = 26.5"] ;
659 -> 661 ;
662 [label="mse = -0.0\nsamples = 1\nvalue = 26.8"] ;
658 -> 662 ;
663 [label="NMHC_measured <= 1481.5\nmse = 0.008\nsamples = 6\nvalue = 27.178"] ;
651 -> 663 ;
664 [label="NMHC_measured <= 1479.0\nmse = 0.002\nsamples = 2\nvalue = 27.067"] ;
663 -> 664 ;
665 [label="mse = 0.0\nsamples = 1\nvalue = 27.0"] ;
664 -> 665 ;
666 [label="mse = 0.0\nsamples = 1\nvalue = 27.1"] ;
664 -> 666 ;
667 [label="NMHC_measured <= 1484.5\nmse = 0.002\nsamples = 4\nvalue = 27.233"] ;
663 -> 667 ;
668 [label="mse = -0.0\nsamples = 3\nvalue = 27.2"] ;
667 -> 668 ;
669 [label="mse = 0.0\nsamples = 1\nvalue = 27.3"] ;
667 -> 669 ;
670 [label="NMHC_measured <= 1508.5\nmse = 0.089\nsamples = 12\nvalue = 27.937"] ;
650 -> 670 ;
671 [label="NMHC_measured <= 1494.0\nmse = 0.032\nsamples = 10\nvalue = 27.818"] ;
670 -> 671 ;
672 [label="RH <= 43.8\nmse = 0.002\nsamples = 2\nvalue = 27.433"] ;
671 -> 672 ;
673 [label="mse = 0.0\nsamples = 1\nvalue = 27.4"] ;
672 -> 673 ;
674 [label="mse = -0.0\nsamples = 1\nvalue = 27.5"] ;
672 -> 674 ;
675 [label="NMHC_measured <= 1500.0\nmse = 0.01\nsamples = 8\nvalue = 27.879"] ;
671 -> 675 ;
676 [label="RH <= 69.25\nmse = 0.002\nsamples = 2\nvalue = 27.775"] ;
675 -> 676 ;
677 [label="mse = 0.0\nsamples = 1\nvalue = 27.8"] ;
676 -> 677 ;
678 [label="mse = -0.0\nsamples = 1\nvalue = 27.7"] ;
676 -> 678 ;
679 [label="NO2_measured <= 1858.0\nmse = 0.002\nsamples = 6\nvalue = 27.955"] ;
675 -> 679 ;
680 [label="mse = 0.0\nsamples = 3\nvalue = 28.0"] ;
679 -> 680 ;
681 [label="mse = -0.0\nsamples = 3\nvalue = 27.9"] ;
679 -> 681 ;
682 [label="RH <= 52.0\nmse = 0.002\nsamples = 2\nvalue = 28.46"] ;
670 -> 682 ;
683 [label="mse = 0.0\nsamples = 1\nvalue = 28.5"] ;
682 -> 683 ;
684 [label="mse = -0.0\nsamples = 1\nvalue = 28.4"] ;
682 -> 684 ;
685 [label="NMHC_measured <= 1549.5\nmse = 0.766\nsamples = 17\nvalue = 30.047"] ;
649 -> 685 ;
686 [label="NMHC_measured <= 1538.0\nmse = 0.087\nsamples = 8\nvalue = 29.214"] ;
685 -> 686 ;
687 [label="NMHC_measured <= 1529.0\nmse = 0.004\nsamples = 6\nvalue = 29.064"] ;
686 -> 687 ;
688 [label="mse = 0.0\nsamples = 2\nvalue = 29.0"] ;
687 -> 688 ;
689 [label="O3_measured <= 1859.0\nmse = 0.001\nsamples = 4\nvalue = 29.117"] ;
687 -> 689 ;
690 [label="mse = 0.0\nsamples = 1\nvalue = 29.2"] ;
689 -> 690 ;
691 [label="mse = 0.0\nsamples = 3\nvalue = 29.1"] ;
689 -> 691 ;
692 [label="temp <= 17.4\nmse = 0.002\nsamples = 2\nvalue = 29.767"] ;
686 -> 692 ;
693 [label="mse = 0.0\nsamples = 1\nvalue = 29.8"] ;
692 -> 693 ;
694 [label="mse = 0.0\nsamples = 1\nvalue = 29.7"] ;
692 -> 694 ;
695 [label="CO_measured <= 1658.0\nmse = 0.223\nsamples = 9\nvalue = 30.775"] ;
685 -> 695 ;
696 [label="NOx_measured <= 511.5\nmse = 0.063\nsamples = 7\nvalue = 30.621"] ;
695 -> 696 ;
697 [label="CO_measured <= 1649.5\nmse = 0.008\nsamples = 5\nvalue = 30.77"] ;
696 -> 697 ;
698 [label="NMHC_measured <= 1569.0\nmse = 0.002\nsamples = 4\nvalue = 30.744"] ;
697 -> 698 ;
699 [label="mse = 0.0\nsamples = 2\nvalue = 30.7"] ;
698 -> 699 ;
700 [label="mse = -0.0\nsamples = 2\nvalue = 30.8"] ;
698 -> 700 ;
701 [label="mse = 0.0\nsamples = 1\nvalue = 31.0"] ;
697 -> 701 ;
702 [label="NO2_measured <= 1777.0\nmse = 0.007\nsamples = 2\nvalue = 30.25"] ;
696 -> 702 ;
703 [label="mse = 0.0\nsamples = 1\nvalue = 30.1"] ;
702 -> 703 ;
704 [label="mse = 0.0\nsamples = 1\nvalue = 30.3"] ;
702 -> 704 ;
705 [label="NO2_measured <= 1927.5\nmse = 0.023\nsamples = 2\nvalue = 31.85"] ;
695 -> 705 ;
706 [label="mse = 0.0\nsamples = 1\nvalue = 32.0"] ;
705 -> 706 ;
707 [label="mse = -0.0\nsamples = 1\nvalue = 31.7"] ;
705 -> 707 ;
708 [label="NMHC_measured <= 1783.0\nmse = 35.495\nsamples = 24\nvalue = 38.447"] ;
578 -> 708 ;
709 [label="NMHC_measured <= 1652.5\nmse = 2.952\nsamples = 17\nvalue = 35.246"] ;
708 -> 709 ;
710 [label="NMHC_measured <= 1617.0\nmse = 0.185\nsamples = 6\nvalue = 33.062"] ;
709 -> 710 ;
711 [label="O3_measured <= 2103.5\nmse = 0.009\nsamples = 3\nvalue = 32.533"] ;
710 -> 711 ;
712 [label="mse = 0.0\nsamples = 2\nvalue = 32.6"] ;
711 -> 712 ;
713 [label="mse = -0.0\nsamples = 1\nvalue = 32.4"] ;
711 -> 713 ;
714 [label="AH <= 0.607\nmse = 0.022\nsamples = 3\nvalue = 33.38"] ;
710 -> 714 ;
715 [label="mse = 0.0\nsamples = 1\nvalue = 33.1"] ;
714 -> 715 ;
716 [label="NO2_measured <= 1925.0\nmse = 0.002\nsamples = 2\nvalue = 33.45"] ;
714 -> 716 ;
717 [label="mse = 0.0\nsamples = 1\nvalue = 33.4"] ;
716 -> 717 ;
718 [label="mse = -0.0\nsamples = 1\nvalue = 33.5"] ;
716 -> 718 ;
719 [label="NMHC_measured <= 1695.5\nmse = 0.76\nsamples = 11\nvalue = 36.338"] ;
709 -> 719 ;
720 [label="NMHC_measured <= 1682.5\nmse = 0.072\nsamples = 7\nvalue = 35.73"] ;
719 -> 720 ;
721 [label="NMHC_measured <= 1676.0\nmse = 0.011\nsamples = 4\nvalue = 35.571"] ;
720 -> 721 ;
722 [label="RH <= 60.05\nmse = 0.002\nsamples = 2\nvalue = 35.467"] ;
721 -> 722 ;
723 [label="mse = 0.0\nsamples = 1\nvalue = 35.5"] ;
722 -> 723 ;
724 [label="mse = -0.0\nsamples = 1\nvalue = 35.4"] ;
722 -> 724 ;
725 [label="NOx_measured <= 385.0\nmse = 0.002\nsamples = 2\nvalue = 35.65"] ;
721 -> 725 ;
726 [label="mse = 0.0\nsamples = 1\nvalue = 35.7"] ;
725 -> 726 ;
727 [label="mse = -0.0\nsamples = 1\nvalue = 35.6"] ;
725 -> 727 ;
728 [label="RH <= 59.05\nmse = 0.02\nsamples = 3\nvalue = 36.1"] ;
720 -> 728 ;
729 [label="mse = 0.0\nsamples = 1\nvalue = 36.3"] ;
728 -> 729 ;
730 [label="mse = 0.0\nsamples = 2\nvalue = 36.0"] ;
728 -> 730 ;
731 [label="NMHC_measured <= 1727.5\nmse = 0.266\nsamples = 4\nvalue = 37.35"] ;
719 -> 731 ;
732 [label="NMHC_measured <= 1705.5\nmse = 0.102\nsamples = 3\nvalue = 37.16"] ;
731 -> 732 ;
733 [label="mse = 0.0\nsamples = 1\nvalue = 36.6"] ;
732 -> 733 ;
734 [label="NOx_measured <= 372.5\nmse = 0.03\nsamples = 2\nvalue = 37.3"] ;
732 -> 734 ;
735 [label="mse = 0.0\nsamples = 1\nvalue = 37.6"] ;
734 -> 735 ;
736 [label="mse = -0.0\nsamples = 1\nvalue = 37.2"] ;
734 -> 736 ;
737 [label="mse = 0.0\nsamples = 1\nvalue = 38.3"] ;
731 -> 737 ;
738 [label="NMHC_measured <= 1917.5\nmse = 10.165\nsamples = 7\nvalue = 48.05"] ;
708 -> 738 ;
739 [label="O3_measured <= 2398.0\nmse = 0.816\nsamples = 3\nvalue = 44.033"] ;
738 -> 739 ;
740 [label="temp <= 12.3\nmse = 0.203\nsamples = 2\nvalue = 43.45"] ;
739 -> 740 ;
741 [label="mse = 0.0\nsamples = 1\nvalue = 43.0"] ;
740 -> 741 ;
742 [label="mse = -0.0\nsamples = 1\nvalue = 43.9"] ;
740 -> 742 ;
743 [label="mse = -0.0\nsamples = 1\nvalue = 45.2"] ;
739 -> 743 ;
744 [label="RH <= 75.45\nmse = 0.286\nsamples = 4\nvalue = 50.46"] ;
738 -> 744 ;
745 [label="O3_measured <= 2434.5\nmse = 0.007\nsamples = 3\nvalue = 50.725"] ;
744 -> 745 ;
746 [label="CO_measured <= 1750.5\nmse = 0.002\nsamples = 2\nvalue = 50.65"] ;
745 -> 746 ;
747 [label="mse = 0.0\nsamples = 1\nvalue = 50.7"] ;
746 -> 747 ;
748 [label="mse = -0.0\nsamples = 1\nvalue = 50.6"] ;
746 -> 748 ;
749 [label="mse = 0.0\nsamples = 1\nvalue = 50.8"] ;
745 -> 749 ;
750 [label="mse = -0.0\nsamples = 1\nvalue = 49.4"] ;
744 -> 750 ;
}